{"bias": [[0.5444893880200291, -0.6583814237684437, 0.31182904276812456, 0.3297299723910598, -0.433879483925904, -0.040121503364952196, -0.3355895717894354], [0.5170969641263339, -0.42698292256549447, 0.3283429626076799]], "hidden_activation": "relu", "layers": [7, 3], "numColumns": [7, 3], "numRows": [3, 7], "output_activation": "identity", "type": "MLPRegressor", "weights": [[-0.4269407050054699, 0.1453967755015332, 0.5007415590614857, -0.5154202346076983, -0.5000560866926037, 0.4251105102501466, 0.00650844276166315, 0.13148108958266164, 0.030649831869250264, 0.4840879717116534, -0.06780849934256898, -0.35921068813824164, 0.3451544968797355, -0.11809436197898626, -0.40143974429057616, 0.45062232111012185, 0.5098305970311853, 0.0072260083050123885, -0.49203305868673475, 0.06636939960826181, 0.37293032854919683], [-0.15730167497241968, -0.046697784030823614, 0.7292993080972899, -0.16560903460839144, 0.21818729322589672, 0.023187362581630396, 0.17773828462468455, 0.5055827388465828, -0.0018402060114061868, -0.23172150953516082, 0.6781569988501998, -0.6712434768587201, -0.0014105663040327495, -0.6895417005217671, -0.32231498282447, -0.0025376479670521025, 0.1803792327572421, -0.29467156122954624, 0.40171188707452427, 0.002027472204446699, 0.28486688908685914]]}